<?xml version="1.0"?>
<opencv_storage>
<cascade>
  <stageType>BOOST</stageType>
  <featureType>HAAR</featureType>
  <height>20</height>
  <width>20</width>
  <stageParams>
    <boostType>GAB</boostType>
    <minHitRate>9.9500000476837158e-01</minHitRate>
    <maxFalseAlarm>5.0000000000000000e-01</maxFalseAlarm>
    <weightTrimRate>9.4999999999999996e-01</weightTrimRate>
    <maxDepth>1</maxDepth>
    <maxWeakCount>100</maxWeakCount></stageParams>
  <featureParams>
    <maxCatCount>0</maxCatCount>
    <featSize>1</featSize>
    <mode>BASIC</mode></featureParams>
  <stageNum>10</stageNum>
  <stages>
    <!-- stage 0 -->
    <_>
      <maxWeakCount>3</maxWeakCount>
      <stageThreshold>-4.7698356211185455e-02</stageThreshold>
      <weakClassifiers>
        <_>
          <internalNodes>
            0 -1 33 3.7549505941569805e-04</internalNodes>
          <leafValues>
            -9.0064102411270142e-01 7.0423889160156250e-01</leafValues></_>
        <_>
          <internalNodes>
            0 -1 5 8.3626917330548167e-04</internalNodes>
          <leafValues>
            -8.6589002609252930e-01 4.8922100663185120e-01</leafValues></_>
        <_>
          <internalNodes>
            0 -1 6 6.6416873596608639e-03</internalNodes>
          <leafValues>
            3.6372166872024536e-01 -9.8076868057250977e-01</leafValues></_></weakClassifiers></_>
    <!-- stage 1 -->
    <_>
      <maxWeakCount>3</maxWeakCount>
      <stageThreshold>-2.2736476361751556e-01</stageThreshold>
      <weakClassifiers>
        <_>
          <internalNodes>
            0 -1 34 2.5575843756087124e-04</internalNodes>
          <leafValues>
            -9.4594591856002808e-01 6.1063539981842041e-01</leafValues></_>
        <_>
          <internalNodes>
            0 -1 38 -5.2661722293123603e-05</internalNodes>
          <leafValues>
            4.1725531220436096e-01 -8.8024312257766724e-01</leafValues></_>
        <_>
          <internalNodes>
            0 -1 2 5.8020986616611481e-03</internalNodes>
          <leafValues>
            3.0132585763931274e-01 -9.4822388887405396e-01</leafValues></_></weakClassifiers></_>
    <!-- stage 2 -->
    <_>
      <maxWeakCount>3</maxWeakCount>
      <stageThreshold>-2.9291123151779175e-01</stageThreshold>
      <weakClassifiers>
        <_>
          <internalNodes>
            0 -1 3 -5.7996418327093124e-03</internalNodes>
          <leafValues>
            -9.5103579759597778e-01 6.4776396751403809e-01</leafValues></_>
        <_>
          <internalNodes>
            0 -1 20 -2.1058968268334866e-03</internalNodes>
          <leafValues>
            -9.4914489984512329e-01 3.4203374385833740e-01</leafValues></_>
        <_>
          <internalNodes>
            0 -1 31 -2.1362362895160913e-04</internalNodes>
          <leafValues>
            3.1609079241752625e-01 -9.0908861160278320e-01</leafValues></_></weakClassifiers></_>
    <!-- stage 3 -->
    <_>
      <maxWeakCount>5</maxWeakCount>
      <stageThreshold>-3.7660092115402222e-01</stageThreshold>
      <weakClassifiers>
        <_>
          <internalNodes>
            0 -1 32 -1.1466157156974077e-03</internalNodes>
          <leafValues>
            -8.9252334833145142e-01 5.6426054239273071e-01</leafValues></_>
        <_>
          <internalNodes>
            0 -1 26 -2.8911244589835405e-03</internalNodes>
          <leafValues>
            6.8970698118209839e-01 -4.5340585708618164e-01</leafValues></_>
        <_>
          <internalNodes>
            0 -1 19 4.7983163967728615e-03</internalNodes>
          <leafValues>
            3.5716676712036133e-01 -8.9546531438827515e-01</leafValues></_>
        <_>
          <internalNodes>
            0 -1 24 -2.5261729024350643e-04</internalNodes>
          <leafValues>
            3.6722591519355774e-01 -7.5562065839767456e-01</leafValues></_>
        <_>
          <internalNodes>
            0 -1 0 -1.4663469046354294e-02</internalNodes>
          <leafValues>
            -8.9492231607437134e-01 2.4493561685085297e-01</leafValues></_></weakClassifiers></_>
    <!-- stage 4 -->
    <_>
      <maxWeakCount>4</maxWeakCount>
      <stageThreshold>1.5240248292684555e-02</stageThreshold>
      <weakClassifiers>
        <_>
          <internalNodes>
            0 -1 14 -1.7512273916509002e-04</internalNodes>
          <leafValues>
            5.9691327810287476e-01 -8.3501005172729492e-01</leafValues></_>
        <_>
          <internalNodes>
            0 -1 15 -1.5858898404985666e-03</internalNodes>
          <leafValues>
            -9.1696548461914062e-01 3.2242918014526367e-01</leafValues></_>
        <_>
          <internalNodes>
            0 -1 4 1.2313900515437126e-02</internalNodes>
          <leafValues>
            2.9089188575744629e-01 -9.1163951158523560e-01</leafValues></_>
        <_>
          <internalNodes>
            0 -1 8 -1.1890179011970758e-03</internalNodes>
          <leafValues>
            -9.5607072114944458e-01 2.3692922294139862e-01</leafValues></_></weakClassifiers></_>
    <!-- stage 5 -->
    <_>
      <maxWeakCount>4</maxWeakCount>
      <stageThreshold>-3.4100286662578583e-02</stageThreshold>
      <weakClassifiers>
        <_>
          <internalNodes>
            0 -1 18 -1.1417641071602702e-03</internalNodes>
          <leafValues>
            5.9348124265670776e-01 -8.3706718683242798e-01</leafValues></_>
        <_>
          <internalNodes>
            0 -1 11 -9.6252083312720060e-04</internalNodes>
          <leafValues>
            -8.9793425798416138e-01 3.3990263938903809e-01</leafValues></_>
        <_>
          <internalNodes>
            0 -1 25 5.0970062147825956e-04</internalNodes>
          <leafValues>
            2.2183790802955627e-01 -9.4408875703811646e-01</leafValues></_>
        <_>
          <internalNodes>
            0 -1 25 -4.9001793377101421e-04</internalNodes>
          <leafValues>
            -9.2739003896713257e-01 2.4122637510299683e-01</leafValues></_></weakClassifiers></_>
    <!-- stage 6 -->
    <_>
      <maxWeakCount>7</maxWeakCount>
      <stageThreshold>-8.7790429592132568e-01</stageThreshold>
      <weakClassifiers>
        <_>
          <internalNodes>
            0 -1 22 -1.2591342674568295e-03</internalNodes>
          <leafValues>
            6.1659514904022217e-01 -6.5174126625061035e-01</leafValues></_>
        <_>
          <internalNodes>
            0 -1 37 2.6706032804213464e-04</internalNodes>
          <leafValues>
            2.9974028468132019e-01 -9.1199541091918945e-01</leafValues></_>
        <_>
          <internalNodes>
            0 -1 27 3.0536051839590073e-02</internalNodes>
          <leafValues>
            -4.3535688519477844e-01 5.5581527948379517e-01</leafValues></_>
        <_>
          <internalNodes>
            0 -1 13 4.4379788450896740e-03</internalNodes>
          <leafValues>
            2.4020671844482422e-01 -9.2126089334487915e-01</leafValues></_>
        <_>
          <internalNodes>
            0 -1 7 1.4004590921103954e-03</internalNodes>
          <leafValues>
            -6.7465126514434814e-01 2.5729003548622131e-01</leafValues></_>
        <_>
          <internalNodes>
            0 -1 12 -4.9077265430241823e-04</internalNodes>
          <leafValues>
            -9.1223502159118652e-01 1.7989481985569000e-01</leafValues></_>
        <_>
          <internalNodes>
            0 -1 12 3.1542151700705290e-03</internalNodes>
          <leafValues>
            1.6400325298309326e-01 -9.6858125925064087e-01</leafValues></_></weakClassifiers></_>
    <!-- stage 7 -->
    <_>
      <maxWeakCount>3</maxWeakCount>
      <stageThreshold>7.3450714349746704e-02</stageThreshold>
      <weakClassifiers>
        <_>
          <internalNodes>
            0 -1 36 1.3716471148654819e-03</internalNodes>
          <leafValues>
            -6.2345677614212036e-01 6.3547760248184204e-01</leafValues></_>
        <_>
          <internalNodes>
            0 -1 1 2.3416909389197826e-03</internalNodes>
          <leafValues>
            -7.3911041021347046e-01 4.1367441415786743e-01</leafValues></_>
        <_>
          <internalNodes>
            0 -1 30 -5.6982729583978653e-03</internalNodes>
          <leafValues>
            -9.1235810518264771e-01 2.8323310613632202e-01</leafValues></_></weakClassifiers></_>
    <!-- stage 8 -->
    <_>
      <maxWeakCount>6</maxWeakCount>
      <stageThreshold>-1.0523055791854858e+00</stageThreshold>
      <weakClassifiers>
        <_>
          <internalNodes>
            0 -1 33 6.7966565256938338e-04</internalNodes>
          <leafValues>
            -7.8252428770065308e-01 5.9633868932723999e-01</leafValues></_>
        <_>
          <internalNodes>
            0 -1 35 -1.3902994105592370e-03</internalNodes>
          <leafValues>
            5.4511177539825439e-01 -4.0334343910217285e-01</leafValues></_>
        <_>
          <internalNodes>
            0 -1 16 8.1481295637786388e-04</internalNodes>
          <leafValues>
            2.4931870400905609e-01 -8.5911971330642700e-01</leafValues></_>
        <_>
          <internalNodes>
            0 -1 21 -1.1476629413664341e-02</internalNodes>
          <leafValues>
            -9.3876802921295166e-01 1.7757362127304077e-01</leafValues></_>
        <_>
          <internalNodes>
            0 -1 17 1.2772034388035536e-03</internalNodes>
          <leafValues>
            -7.1782928705215454e-01 2.4619890749454498e-01</leafValues></_>
        <_>
          <internalNodes>
            0 -1 23 1.2142990453867242e-04</internalNodes>
          <leafValues>
            -9.6214967966079712e-01 1.6197781264781952e-01</leafValues></_></weakClassifiers></_>
    <!-- stage 9 -->
    <_>
      <maxWeakCount>5</maxWeakCount>
      <stageThreshold>-4.1189375519752502e-01</stageThreshold>
      <weakClassifiers>
        <_>
          <internalNodes>
            0 -1 29 6.1930331867188215e-05</internalNodes>
          <leafValues>
            -6.2015503644943237e-01 5.5860805511474609e-01</leafValues></_>
        <_>
          <internalNodes>
            0 -1 9 -8.8373222388327122e-04</internalNodes>
          <leafValues>
            -8.1963485479354858e-01 2.8263786435127258e-01</leafValues></_>
        <_>
          <internalNodes>
            0 -1 39 2.4578909506089985e-04</internalNodes>
          <leafValues>
            2.4933615326881409e-01 -7.9030239582061768e-01</leafValues></_>
        <_>
          <internalNodes>
            0 -1 28 7.2915630880743265e-04</internalNodes>
          <leafValues>
            2.2086389362812042e-01 -8.9997816085815430e-01</leafValues></_>
        <_>
          <internalNodes>
            0 -1 10 3.1616741325706244e-03</internalNodes>
          <leafValues>
            -4.9029424786567688e-01 4.1857156157493591e-01</leafValues></_></weakClassifiers></_></stages>
  <features>
    <_>
      <rects>
        <_>
          7 6 6 8 -1.</_>
        <_>
          7 10 6 4 2.</_></rects>
      <tilted>0</tilted></_>
    <_>
      <rects>
        <_>
          7 7 3 7 -1.</_>
        <_>
          8 7 1 7 3.</_></rects>
      <tilted>0</tilted></_>
    <_>
      <rects>
        <_>
          7 7 6 5 -1.</_>
        <_>
          10 7 3 5 2.</_></rects>
      <tilted>0</tilted></_>
    <_>
      <rects>
        <_>
          7 7 6 6 -1.</_>
        <_>
          10 7 3 6 2.</_></rects>
      <tilted>0</tilted></_>
    <_>
      <rects>
        <_>
          7 7 8 6 -1.</_>
        <_>
          11 7 4 6 2.</_></rects>
      <tilted>0</tilted></_>
    <_>
      <rects>
        <_>
          7 8 2 5 -1.</_>
        <_>
          8 8 1 5 2.</_></rects>
      <tilted>0</tilted></_>
    <_>
      <rects>
        <_>
          7 8 6 6 -1.</_>
        <_>
          7 11 6 3 2.</_></rects>
      <tilted>0</tilted></_>
    <_>
      <rects>
        <_>
          7 9 2 5 -1.</_>
        <_>
          8 9 1 5 2.</_></rects>
      <tilted>0</tilted></_>
    <_>
      <rects>
        <_>
          7 10 8 1 -1.</_>
        <_>
          11 10 4 1 2.</_></rects>
      <tilted>0</tilted></_>
    <_>
      <rects>
        <_>
          7 11 6 2 -1.</_>
        <_>
          10 11 3 2 2.</_></rects>
      <tilted>0</tilted></_>
    <_>
      <rects>
        <_>
          8 5 4 2 -1.</_>
        <_>
          8 6 4 1 2.</_></rects>
      <tilted>0</tilted></_>
    <_>
      <rects>
        <_>
          8 6 1 6 -1.</_>
        <_>
          8 9 1 3 2.</_></rects>
      <tilted>0</tilted></_>
    <_>
      <rects>
        <_>
          8 7 1 6 -1.</_>
        <_>
          8 9 1 2 3.</_></rects>
      <tilted>0</tilted></_>
    <_>
      <rects>
        <_>
          8 7 6 3 -1.</_>
        <_>
          11 7 3 3 2.</_></rects>
      <tilted>0</tilted></_>
    <_>
      <rects>
        <_>
          8 8 1 6 -1.</_>
        <_>
          8 11 1 3 2.</_></rects>
      <tilted>0</tilted></_>
    <_>
      <rects>
        <_>
          8 8 6 2 -1.</_>
        <_>
          11 8 3 2 2.</_></rects>
      <tilted>0</tilted></_>
    <_>
      <rects>
        <_>
          9 6 2 8 -1.</_>
        <_>
          9 10 2 4 2.</_></rects>
      <tilted>0</tilted></_>
    <_>
      <rects>
        <_>
          9 7 6 3 -1.</_>
        <_>
          11 7 2 3 3.</_></rects>
      <tilted>0</tilted></_>
    <_>
      <rects>
        <_>
          9 7 3 4 -1.</_>
        <_>
          9 9 3 2 2.</_></rects>
      <tilted>0</tilted></_>
    <_>
      <rects>
        <_>
          9 7 3 8 -1.</_>
        <_>
          9 11 3 4 2.</_></rects>
      <tilted>0</tilted></_>
    <_>
      <rects>
        <_>
          9 8 3 6 -1.</_>
        <_>
          9 11 3 3 2.</_></rects>
      <tilted>0</tilted></_>
    <_>
      <rects>
        <_>
          9 8 4 6 -1.</_>
        <_>
          9 10 4 2 3.</_></rects>
      <tilted>0</tilted></_>
    <_>
      <rects>
        <_>
          9 9 3 4 -1.</_>
        <_>
          10 9 1 4 3.</_></rects>
      <tilted>0</tilted></_>
    <_>
      <rects>
        <_>
          9 10 3 4 -1.</_>
        <_>
          9 12 3 2 2.</_></rects>
      <tilted>0</tilted></_>
    <_>
      <rects>
        <_>
          9 11 2 1 -1.</_>
        <_>
          10 11 1 1 2.</_></rects>
      <tilted>0</tilted></_>
    <_>
      <rects>
        <_>
          9 12 2 2 -1.</_>
        <_>
          10 12 1 2 2.</_></rects>
      <tilted>0</tilted></_>
    <_>
      <rects>
        <_>
          9 14 2 2 -1.</_>
        <_>
          9 15 2 1 2.</_></rects>
      <tilted>0</tilted></_>
    <_>
      <rects>
        <_>
          10 0 2 18 -1.</_>
        <_>
          10 6 2 6 3.</_></rects>
      <tilted>0</tilted></_>
    <_>
      <rects>
        <_>
          10 6 1 2 -1.</_>
        <_>
          10 7 1 1 2.</_></rects>
      <tilted>0</tilted></_>
    <_>
      <rects>
        <_>
          10 6 1 3 -1.</_>
        <_>
          10 7 1 1 3.</_></rects>
      <tilted>0</tilted></_>
    <_>
      <rects>
        <_>
          10 6 2 8 -1.</_>
        <_>
          10 10 2 4 2.</_></rects>
      <tilted>0</tilted></_>
    <_>
      <rects>
        <_>
          10 7 2 6 -1.</_>
        <_>
          10 10 2 3 2.</_></rects>
      <tilted>0</tilted></_>
    <_>
      <rects>
        <_>
          10 9 3 4 -1.</_>
        <_>
          10 11 3 2 2.</_></rects>
      <tilted>0</tilted></_>
    <_>
      <rects>
        <_>
          10 10 1 4 -1.</_>
        <_>
          10 12 1 2 2.</_></rects>
      <tilted>0</tilted></_>
    <_>
      <rects>
        <_>
          10 10 4 1 -1.</_>
        <_>
          12 10 2 1 2.</_></rects>
      <tilted>0</tilted></_>
    <_>
      <rects>
        <_>
          10 14 1 2 -1.</_>
        <_>
          10 15 1 1 2.</_></rects>
      <tilted>0</tilted></_>
    <_>
      <rects>
        <_>
          11 8 3 5 -1.</_>
        <_>
          12 8 1 5 3.</_></rects>
      <tilted>0</tilted></_>
    <_>
      <rects>
        <_>
          11 8 2 4 -1.</_>
        <_>
          11 10 2 2 2.</_></rects>
      <tilted>0</tilted></_>
    <_>
      <rects>
        <_>
          12 8 2 5 -1.</_>
        <_>
          13 8 1 5 2.</_></rects>
      <tilted>0</tilted></_>
    <_>
      <rects>
        <_>
          12 9 1 4 -1.</_>
        <_>
          12 11 1 2 2.</_></rects>
      <tilted>0</tilted></_></features></cascade>
</opencv_storage>
