<?xml version="1.0"?>
<opencv_storage>
<stage6>
  <maxWeakCount>7</maxWeakCount>
  <stageThreshold>-8.7790429592132568e-01</stageThreshold>
  <weakClassifiers>
    <_>
      <internalNodes>
        0 -1 57406 -1.2591342674568295e-03</internalNodes>
      <leafValues>
        6.1659514904022217e-01 -6.5174126625061035e-01</leafValues></_>
    <_>
      <internalNodes>
        0 -1 64576 2.6706032804213464e-04</internalNodes>
      <leafValues>
        2.9974028468132019e-01 -9.1199541091918945e-01</leafValues></_>
    <_>
      <internalNodes>
        0 -1 58689 3.0536051839590073e-02</internalNodes>
      <leafValues>
        -4.3535688519477844e-01 5.5581527948379517e-01</leafValues></_>
    <_>
      <internalNodes>
        0 -1 52738 4.4379788450896740e-03</internalNodes>
      <leafValues>
        2.4020671844482422e-01 -9.2126089334487915e-01</leafValues></_>
    <_>
      <internalNodes>
        0 -1 48521 1.4004590921103954e-03</internalNodes>
      <leafValues>
        -6.7465126514434814e-01 2.5729003548622131e-01</leafValues></_>
    <_>
      <internalNodes>
        0 -1 52652 -4.9077265430241823e-04</internalNodes>
      <leafValues>
        -9.1223502159118652e-01 1.7989481985569000e-01</leafValues></_>
    <_>
      <internalNodes>
        0 -1 52652 3.1542151700705290e-03</internalNodes>
      <leafValues>
        1.6400325298309326e-01 -9.6858125925064087e-01</leafValues></_></weakClassifiers></stage6>
</opencv_storage>
